const networkSave = {"type":"NeuralNetwork","sizes":[128,3,1],"layers":[{"weights":[],"biases":[]},{"weights":[[0.23247329890727997,0.22728678584098816,0.13909557461738586,0.08663953095674515,0.27980872988700867,0.2584325671195984,0.05035180598497391,0.07671332359313965,0.15346279740333557,0.06206829845905304,0.2713474631309509,0.003163339337334037,0.08882841467857361,-0.08484330028295517,-0.00036604583146981895,0.11882985383272171,0.03926819562911987,0.23196907341480255,0.097418874502182,-0.05772256478667259,0.15622954070568085,-0.1114405170083046,0.05739406868815422,0.2203754037618637,0.01262833084911108,0.03887542337179184,-0.022333795204758644,-0.04826444759964943,-0.09025643020868301,-0.09275291115045547,0.1967591941356659,-0.02674177661538124,0.09102166444063187,-0.01396334171295166,-0.11481780558824539,0.24378715455532074,0.14148476719856262,0.07270752638578415,-0.12756165862083435,0.1704273819923401,-0.04267942160367966,0.1824897676706314,0.1597975194454193,-0.13610178232192993,0.09856785088777542,-0.1555418223142624,-0.018038861453533173,-0.1347852498292923,0.03176538273692131,0.07876880466938019,-0.039620500057935715,-0.14048294723033905,-0.03139051795005798,0.11078862845897675,-0.07872350513935089,0.01741970144212246,0.19882109761238098,-0.017211662605404854,-0.02470169961452484,0.04611079767346382,-0.13506771624088287,-0.14604632556438446,0.08036983758211136,0.05719812586903572,0.17903661727905273,0.17494961619377136,0.0373719222843647,0.2209225296974182,0.04367723688483238,0.17874114215373993,0.12166397273540497,-0.1011180430650711,0.20602907240390778,0.08535031974315643,0.10103649646043777,0.025714010000228882,0.19391953945159912,0.21346047520637512,0.10425551235675812,-0.03863001614809036,0.1017560139298439,0.02163797989487648,0.15146933495998383,-0.04105806723237038,-0.03964440897107124,0.2047244906425476,0.07571141421794891,0.016727915033698082,0.15544618666172028,-0.17241422832012177,-0.13863137364387512,-0.10455287247896194,0.1455748826265335,0.032036423683166504,0.21516790986061096,0.02038971148431301,0.19111838936805725,0.11795051395893097,0.18483982980251312,-0.10322963446378708,0.07611513137817383,0.11964745819568634,0.032800376415252686,0.132304385304451,-0.17802412807941437,-0.14965477585792542,-0.0803699791431427,-0.04062279313802719,0.14596420526504517,0.17733806371688843,-0.019658908247947693,-0.07158242911100388,-0.13312458992004395,0.014615117572247982,0.05345572903752327,-0.18674857914447784,-0.1373218148946762,0.17669397592544556,0.08404909819364548,-0.12399569153785706,0.07056605070829391,-0.14260682463645935,-0.17110837996006012,-0.17951995134353638,-0.15763087570667267,0.0633968710899353,0.10561396181583405,-0.09701457619667053],[0.033691372722387314,0.0038616652600467205,0.19803409278392792,-0.09099026769399643,-0.021922342479228973,-0.018924852833151817,0.2336205691099167,0.032907601445913315,-0.031382229179143906,0.24244725704193115,0.06763646751642227,0.015574916265904903,-0.030099788680672646,0.19491131603717804,0.19432446360588074,-0.03293357416987419,-0.067030169069767,0.1792348027229309,0.07285378873348236,0.07323072850704193,0.18168114125728607,0.22412915527820587,-0.0945558249950409,0.2063196450471878,0.06122985854744911,0.10787314921617508,-0.08758450299501419,-0.0222431980073452,-0.016086068004369736,-0.14466352760791779,0.07577674835920334,0.1469099521636963,-0.058045461773872375,0.03562723100185394,0.03446948155760765,-0.08649428933858871,-0.009755635634064674,-0.14590966701507568,0.22639955580234528,0.05120042711496353,0.008053283207118511,-0.04730253666639328,-0.03665421903133392,-0.07428192347288132,0.08113674074411392,-0.14846518635749817,0.050387922674417496,0.10610297322273254,0.06596259772777557,0.1074427142739296,0.11198306828737259,0.21923291683197021,0.1399805247783661,-0.16331112384796143,0.004008193500339985,-0.16049760580062866,0.012925976887345314,0.04427434876561165,0.09347943961620331,0.21598435938358307,0.18305785953998566,-0.11300414800643921,0.11294058710336685,0.09376250207424164,0.1900879144668579,-0.018430937081575394,-0.09736789017915726,0.15710851550102234,0.06538666039705276,-0.09057256579399109,-0.014948614872992039,0.1828169971704483,-0.12589143216609955,0.17267407476902008,-0.01157508883625269,0.12396237254142761,-0.10434426367282867,0.05795970931649208,-0.10685513913631439,-0.023751813918352127,-0.16579711437225342,0.14131756126880646,0.00036335940239951015,-0.051242053508758545,-0.09365859627723694,-0.027624014765024185,-0.08425736427307129,-0.0760965570807457,0.023172739893198013,-0.10413573682308197,0.06027548015117645,0.0541842095553875,0.027456827461719513,-0.018948012962937355,-0.054232630878686905,-0.12192504853010178,0.1470947414636612,0.07354646921157837,0.11977940052747726,0.05687524750828743,0.11221431195735931,-0.08186973631381989,-0.1686173528432846,-0.08385951817035675,0.08850671350955963,-0.024004390463232994,-0.12572002410888672,0.12927477061748505,0.12009578943252563,-0.17316623032093048,0.14495716989040375,0.1460368037223816,0.12079466879367828,-0.18194924294948578,0.0229084063321352,0.11339476704597473,-0.0007304674945771694,-0.10725530236959457,-0.05603086203336716,0.10796941816806793,0.03172019496560097,-0.055235009640455246,-0.024340832605957985,0.11439349502325058,0.18866263329982758,0.16766291856765747,0.15084029734134674,-0.0017474399646744132],[0.04805803671479225,0.3196282684803009,0.2002078890800476,0.29374954104423523,0.08529923856258392,0.26763707399368286,-0.024252019822597504,0.23171210289001465,0.031688887625932693,0.19536004960536957,0.26302066445350647,0.2505558133125305,-0.0521124042570591,0.09914550185203552,0.1115470677614212,0.09751982241868973,0.008415271528065205,0.1286211907863617,0.08276709169149399,0.247199147939682,0.21050262451171875,0.10749568045139313,0.16504856944084167,0.16641440987586975,0.17603953182697296,0.18986357748508453,-0.07918417453765869,0.1636786311864853,0.09231263399124146,-0.1022782251238823,0.1413918286561966,-0.031971756368875504,-0.11925248056650162,0.03472201153635979,0.0533994697034359,0.13025011122226715,-0.0941312164068222,-0.04646278917789459,0.21462403237819672,0.12335532158613205,0.014281666837632656,-0.12223420292139053,-0.12895707786083221,-0.12298279255628586,-0.15921923518180847,-0.10728584975004196,-0.0011549073969945312,-0.096324622631073,0.18648189306259155,-0.04954409971833229,0.11531650274991989,0.0922771692276001,0.2374422252178192,-0.0010476848110556602,0.04636432230472565,0.010382624343037605,0.08687082678079605,-0.06170696020126343,0.02669062465429306,-0.09706799685955048,0.17511139810085297,0.15954084694385529,-0.10366708785295486,-0.05755288898944855,-0.03487801551818848,-0.05065503716468811,0.14507727324962616,-0.0970710888504982,-0.02673434652388096,-0.15973001718521118,0.15359774231910706,0.21663673222064972,0.1702541708946228,0.08742627501487732,0.043259430676698685,0.06081577017903328,0.13028590381145477,0.15457025170326233,0.07675712555646896,0.1755908876657486,0.08465833216905594,-0.07975398004055023,0.18415866792201996,-0.07042838633060455,0.17771393060684204,0.09018726646900177,0.135587677359581,-0.02039695531129837,0.033542048186063766,-0.06317183375358582,-0.07134001702070236,0.02930382452905178,0.0639914721250534,0.06766293942928314,0.07719940692186356,0.027966871857643127,0.011462538503110409,0.0032879484351724386,0.056205667555332184,0.12741678953170776,-0.16129155457019806,-0.030568202957510948,-0.10126943141222,0.1230107918381691,0.09400291740894318,0.13312284648418427,-0.135605588555336,0.10889197140932083,0.17754925787448883,-0.07263403385877609,0.10483682155609131,-0.11322134733200073,-0.16943083703517914,0.1554839015007019,-0.18144044280052185,-0.071555957198143,0.12845514714717865,-0.11826003342866898,0.006207044702023268,0.166519433259964,-0.04353334382176399,-0.09254232794046402,0.06146063283085823,0.08266249299049377,-0.02907068096101284,-0.08368027210235596,0.16820625960826874,0.056919146329164505]],"biases":[0.3821777403354645,0.22177281975746155,0.09408668428659439]},{"weights":[[1.6146860122680664,0.9073067903518677,1.6599116325378418]],"biases":[2.0596697330474854]}],"inputLookup":null,"inputLookupLength":0,"outputLookup":null,"outputLookupLength":0,"options":{"inputSize":0,"outputSize":0,"binaryThresh":0.5,"hiddenLayers":[3],"activation":"sigmoid","leakyReluAlpha":0.01},"trainOpts":{"activation":"sigmoid","iterations":20000,"errorThresh":0.005,"log":false,"logPeriod":10,"leakyReluAlpha":0.01,"learningRate":0.3,"momentum":0.1,"callbackPeriod":10,"timeout":"Infinity","beta1":0.9,"beta2":0.999,"epsilon":1e-8}};